digraph Tree {
node [shape=box, style="filled, rounded", color="black", fontname="helvetica"] ;
edge [fontname="helvetica"] ;
0 [label="rr <= 20.008\ngini = 0.8\nsamples = 504\nvalue = [98, 107, 104, 98, 97]\nclass = 1", fillcolor="#fefffe"] ;
1 [label="rem <= 80.02\ngini = 0.499\nsamples = 205\nvalue = [98, 107, 0, 0, 0]\nclass = 1", fillcolor="#f4fdee"] ;
0 -> 1 [labeldistance=2.5, labelangle=45, headlabel="True"] ;
5 [label="gini = 0.02\nsamples = 99\nvalue = [98, 1, 0, 0, 0]\nclass = 0", fillcolor="#e5823b"] ;
1 -> 5 ;
6 [label="gini = 0.0\nsamples = 106\nvalue = [0, 106, 0, 0, 0]\nclass = 1", fillcolor="#7be539"] ;
1 -> 6 ;
2 [label="sh <= 2.012\ngini = 0.666\nsamples = 299\nvalue = [0, 0, 104, 98, 97]\nclass = 2", fillcolor="#f9fefd"] ;
0 -> 2 [labeldistance=2.5, labelangle=-45, headlabel="False"] ;
3 [label="sr <= 95.5\ngini = 0.5\nsamples = 195\nvalue = [0, 0, 0, 98, 97]\nclass = 3", fillcolor="#fdfdff"] ;
2 -> 3 ;
7 [label="gini = 0.0\nsamples = 98\nvalue = [0, 0, 0, 98, 0]\nclass = 3", fillcolor="#3c39e5"] ;
3 -> 7 ;
8 [label="gini = 0.0\nsamples = 97\nvalue = [0, 0, 0, 0, 97]\nclass = 4", fillcolor="#e539c0"] ;
3 -> 8 ;
4 [label="gini = 0.0\nsamples = 104\nvalue = [0, 0, 104, 0, 0]\nclass = 2", fillcolor="#39e5c5"] ;
2 -> 4 ;
}